8 10 1
-7.358794269687821 6.632433909855802 4.741432855802042 -5.1132866413217055 -0.22897775214066746 -1.1812315266332063 2.8274224558131955 5.759934015992513 -8.721268228226888 
-9.168019631507077 6.831605128803277 -1.3948015198402466 5.392986282630308 -9.703478851780506 -1.1881585516805775 4.128732497138377 -5.580343645889556 8.971111118899005 
7.978878599819837 -9.38795325706215 -9.491536793876811 0.8233223888490555 8.759605376586855 -2.3628826960204576 -5.6996767570411935 -1.5699674843612481 -9.463925578834036 
-5.566166793338414 -1.2422485068428621 -0.08375598102205853 -5.338311510559193 -5.382669351691468 -5.6243799005915305 -0.8079313434427366 -4.2043677144946 -9.570207152415769 
7.272240837611937 1.3808156912296132 2.8416922239735114 -5.297434351472818 9.843024228241276 7.773575375023857 -6.922141542603753 -2.4788178708396336 5.778800597372921 
4.222252270578702 8.72805830578651 -1.5667402148672664 6.598251373332615 3.404181097213475 -3.940843343006561 1.7459240702854104 7.649439117829992 6.9127795870205 
0.10915005789284078 -0.13089351200752478 -9.214759323101907 -5.603160040745907 5.472187863504824 -1.9605537533563777 -6.7912224432059025 1.488585730519458 2.9525390134842633 
3.4899328898143183 -2.506002159169704 -1.2209434276183604 0.16892020120882806 5.5685304053085725 0.41915332062700517 -2.134747083734018 -0.20590520815627714 -9.408133421339327 
-8.941714230026236 3.900961176820194 9.659644989195767 2.116886174439829 -2.1886309383843323 -6.311418227410166 0.20612548939903974 9.799993054159517 5.726217813584631 
0.3242432428973514 7.1439912347553856 -5.212681411170754 -0.08965373762461504 9.058391546112261 1.2548846791833024 -1.0705154010987792 -4.913641070297299 0.3824202133319391 
-----------------------------------------------------------------------
9.0635895104451 -8.395425479853127 5.663776400294609 6.40971804228675 8.917993201744277 6.201212294439477 5.391425633247001 0.3745410088542959 0.5486931937473987 -0.529285899735599 -7.488223342780297 
-----------------------------------------------------------------------
108.3 0.0 0.0 121.8 0.0 801.0 594.0 3.0 
540.0 305.3 195.0 237.0 32.2 1134.3 992.6 365.0 
2.33 
79.4 
